digraph Tree {
node [shape=box, style="filled, rounded", color="black", fontname=helvetica] ;
edge [fontname=helvetica] ;
0 [label="petal length (cm) <= 2.6\ngini = 0.66\nsamples = 94\nvalue = [48, 55, 47]\nclass = versicolor", fillcolor="#f1fdf6"] ;
1 [label="gini = 0.0\nsamples = 33\nvalue = [48, 0, 0]\nclass = setosa", fillcolor="#e58139"] ;
0 -> 1 [labeldistance=2.5, labelangle=45, headlabel="True"] ;
2 [label="petal length (cm) <= 4.75\ngini = 0.5\nsamples = 61\nvalue = [0, 55, 47]\nclass = versicolor", fillcolor="#e2fbed"] ;
0 -> 2 [labeldistance=2.5, labelangle=-45, headlabel="False"] ;
3 [label="gini = 0.0\nsamples = 28\nvalue = [0, 51, 0]\nclass = versicolor", fillcolor="#39e581"] ;
2 -> 3 ;
4 [label="sepal length (cm) <= 6.05\ngini = 0.14\nsamples = 33\nvalue = [0, 4, 47]\nclass = virginica", fillcolor="#8c4ae7"] ;
2 -> 4 ;
5 [label="sepal length (cm) <= 5.95\ngini = 0.48\nsamples = 4\nvalue = [0, 2, 3]\nclass = virginica", fillcolor="#d5bdf6"] ;
4 -> 5 ;
6 [label="petal length (cm) <= 4.95\ngini = 0.38\nsamples = 3\nvalue = [0, 1, 3]\nclass = virginica", fillcolor="#ab7bee"] ;
5 -> 6 ;
7 [label="gini = 0.0\nsamples = 1\nvalue = [0, 1, 0]\nclass = versicolor", fillcolor="#39e581"] ;
6 -> 7 ;
8 [label="gini = 0.0\nsamples = 2\nvalue = [0, 0, 3]\nclass = virginica", fillcolor="#8139e5"] ;
6 -> 8 ;
9 [label="gini = 0.0\nsamples = 1\nvalue = [0, 1, 0]\nclass = versicolor", fillcolor="#39e581"] ;
5 -> 9 ;
10 [label="petal width (cm) <= 1.65\ngini = 0.08\nsamples = 29\nvalue = [0, 2, 44]\nclass = virginica", fillcolor="#8742e6"] ;
4 -> 10 ;
11 [label="sepal width (cm) <= 2.95\ngini = 0.48\nsamples = 4\nvalue = [0, 2, 3]\nclass = virginica", fillcolor="#d5bdf6"] ;
10 -> 11 ;
12 [label="petal length (cm) <= 4.95\ngini = 0.38\nsamples = 3\nvalue = [0, 1, 3]\nclass = virginica", fillcolor="#ab7bee"] ;
11 -> 12 ;
13 [label="gini = 0.0\nsamples = 1\nvalue = [0, 1, 0]\nclass = versicolor", fillcolor="#39e581"] ;
12 -> 13 ;
14 [label="gini = 0.0\nsamples = 2\nvalue = [0, 0, 3]\nclass = virginica", fillcolor="#8139e5"] ;
12 -> 14 ;
15 [label="gini = 0.0\nsamples = 1\nvalue = [0, 1, 0]\nclass = versicolor", fillcolor="#39e581"] ;
11 -> 15 ;
16 [label="gini = 0.0\nsamples = 25\nvalue = [0, 0, 41]\nclass = virginica", fillcolor="#8139e5"] ;
10 -> 16 ;
}